#pragma once
#include <stdint.h>

// Dimensions: IC=1, KH=4, KW=4, OC=128
// Fractional bits for weights/biases: f_w = 16

#define WEIGHT_PATCH   {{{{-0.187241, 0.0918427, 0.0638123, -0.15181, -0.0986023, -0.0563354, -0.242981, -0.179047, 0.00405884, -0.137131, -0.0787048, 0.239655, -0.0237579, -0.149429, 0.062851, -0.0315094, -0.0213165, 0.187027, -0.16452, -0.0502472, 0.064743, 0.029953, -0.000137329, -0.116943, -0.0133209, 0.0355225, 0.121643, -0.14476, 0.0913239, 0.137085, 0.0908203, -0.101135, -0.1884, -0.00740051, 0.00669861, -0.133621, -0.0852661, 0.0326385, -0.168518, -0.0501556, -0.132828, -0.0661469, -0.1819, -0.00395203, 0.127869, -0.166016, -0.061203, -0.112122, -0.0126953, -0.241989, -0.180664, -0.149597, -0.194839, -0.131821, -0.00671387, 0.152451, -0.103683, -0.185745, 0.0795441, -0.0697021, -0.00765991, -0.00796509, 0.138489, -0.0975342, -0.184937, 0.0193939, 0.0713654, -0.219894, -0.152298, -0.166412, -0.213577, 0.19812, 0.00816345, 0.0925446, -0.161301, 0.156387, -0.187271, 0.125412, -0.1828, -0.0484619, 0.048111, -0.178589, -0.155182, 0.0914307, -0.0419006, 0.206512, -0.0160828, 0.109177, 0.254807, -0.0671997, 0.051178, -0.0497284, -0.168564, 0.0870209, 0.0254517, -0.116333, -0.110916, -0.222641, -0.107162, 0.18103, 0.107834, 0.148346, -0.0492554, -0.161636, 0.094101, 0.055191, 0.0610199, -0.032608, 0.11412, -0.117584, -0.0702667, -0.143173, 0.0507202, -0.0728607, 0.118866, -0.103058, -0.123489, -0.114212, -0.122314, 0.150909, 0.157181, 0.222916, 0.0260468, -0.240463, 0.0459442, 0.151917, 0.163757, -0.0908508}, {-0.0851746, 0.100052, 0.0148468, -0.138062, 0.130798, -0.202988, -0.177124, 0.226334, -0.136688, 0.13916, 0.0662537, 0.183029, 0.0393829, 0.0015564, -0.0374603, -0.00250244, -0.0675354, -0.259552, 0.111343, -0.070816, 0.135132, 0.0593109, -0.210693, 0.0172119, -0.211975, -0.232864, -0.100754, 0.21225, -0.119812, 0.0755005, 0.171005, 0.207413, 0.0527191, -0.0420074, 0.114151, -0.123901, -0.134109, -0.00947571, 0.0836792, -0.00990295, 0.0654602, -0.116592, 0.0865173, -0.194641, 0.0301056, 0.119675, 0.122589, 0.0974579, 0.128983, -0.136078, 0.0829773, 0.237427, -0.137085, 0.070694, 0.223465, 0.229141, 0.0545349, -0.172501, -0.181305, -0.0730133, -0.0900574, 0.18779, 0.0703278, -0.119766, 0.237717, 0.207718, -0.0893402, 0.135086, 0.185303, 0.144073, 0.0435333, -0.0984192, -0.0818176, -0.221588, 0.050766, -0.0793152, -0.122116, 0.0229034, -0.0613861, 0.0666351, -0.109711, 0.105972, -0.13945, -0.109161, -0.00111389, 0.143723, 0.0266266, -0.215179, -0.201035, 0.183884, 0.119476, 0.225616, 0.160461, -0.111633, -0.132355, -0.108994, 0.155151, -0.161667, -0.115158, 0.0674591, 0.138199, 0.0528412, 0.00827026, 0.179688, -0.204773, -0.0503693, 0.0375824, -0.185516, 0.150955, -0.115921, 0.170746, -0.144241, -0.154648, 0.0558624, 0.0137482, -0.19101, 0.114746, -0.0344086, -0.0674438, 0.0704498, -0.0200043, -0.201401, 0.22406, 0.152924, 0.13826, -0.179474, -0.12381, 0.0497437}, {0.144913, -0.151718, 0.0947876, 0.227676, 0.244354, -0.204269, 0.0135193, -0.124039, 0.0227051, 0.00149536, 0.00202942, 0.191818, 0.146118, 0.112503, -0.0510406, 0.162521, 0.065979, 0.157776, 0.215485, -0.0396881, -0.0912781, 0.102448, 0.247345, -0.21196, 0.0431213, 0.0517883, 0.0898895, -0.181137, 0.0533905, -0.0704193, -0.161804, 0.00506592, 0.250244, -0.0273743, -0.158188, -0.11528, -0.107742, -0.0151672, 0.0470428, 0.18512, -0.0124359, 0.0261536, 0.109253, 0.105194, -0.0475769, 0.184753, -0.258133, 0.0164337, -0.184555, 0.0965271, 0.247238, -0.0920105, -0.0317993, 0.111084, -0.198944, -0.145172, 0.0280914, 0.199585, 0.125015, -0.146851, -0.0198975, -0.167023, 0.0944519, -0.0814667, -0.0843964, -0.148453, -0.215179, -0.0597687, 0.144058, -0.0736542, 0.242065, 0.0468903, 0.0250092, 0.106064, -0.175858, -0.106323, 0.0437927, 0.171051, 0.143478, -0.168503, -0.0213776, -0.190842, -0.170029, 0.242874, -0.174149, -0.186142, -0.133163, 0.185699, -0.207428, -0.157867, -0.252365, 0.0566101, -0.047821, 0.00674438, -0.0200043, -0.117203, -0.0656281, -0.124588, 0.192764, -0.0381622, 0.19136, -0.0933685, 0.0395813, 0.105453, -0.148041, 0.182327, 0.074173, 0.0319214, -0.126556, 0.0782318, -0.0292358, -0.17334, 0.100189, 0.035675, 0.169724, 0.00901794, 0.0478516, 0.0219421, 0.142578, -0.0152435, 0.0774231, -0.14917, -0.180878, 0.174957, -0.0600586, -0.0719299, 0.172989, 0.0684052}, {0.219803, -0.00108337, 0.131439, -0.0649414, -0.275375, -0.173233, -0.189041, 0.0195618, 0.11702, -0.205978, -0.0644531, -0.0285187, -0.231064, 0.0553741, -0.0346069, 0.183151, -0.080368, 0.0869598, -0.045578, 0.0352478, 0.190948, 0.117279, -0.10495, -0.049942, -0.0152893, 0.0932465, -0.0785065, -0.0545654, 0.181564, 0.132111, 0.118698, 0.0836945, -0.213577, -0.206741, 0.0125275, -0.198929, 0.183777, 0.0573273, 0.154343, -0.197693, -0.0406189, -0.179276, -0.037735, 0.0757751, -0.127655, 0.0595245, 0.206635, 0.212555, 0.112442, -0.0437012, -0.224503, -0.17099, -0.164673, 0.0962677, 0.0020752, -0.149216, -0.164719, 0.138138, 0.146286, 0.237442, -0.00144958, 0.00419617, 0.147125, 0.129166, -0.0119476, -0.168716, -0.090332, -0.155365, -0.168869, 0.0668335, -0.243408, -0.0600433, 0.0536652, -0.145782, -0.220215, 0.0538788, 0.0462646, -0.161346, 0.196442, -0.0288696, 0.0365295, 0.0924683, 0.212067, -0.0970306, 0.0247803, 0.106079, -0.0198975, 0.00852966, -0.170212, -0.172684, -0.0462646, -0.0309448, 0.0533295, 0.0764771, 0.00479126, -0.088913, 0.0788422, -0.199326, -0.011322, -0.157028, -0.0469971, 0.0165405, -0.0751953, -0.0497589, 0.0302887, 0.0887604, -0.189606, 0.169678, -0.0674133, 0.133575, -0.0714417, -0.124634, 0.129349, -0.147568, 0.038681, 0.0680389, -0.105545, 0.00302124, -0.0210419, -0.108551, 0.179688, 0.220764, 0.142227, 0.0901337, -0.187897, 0.0918274, -0.0758514, 0.0997009}}, {{0.0414429, 0.00447083, -0.0891266, -0.113861, -0.0480957, -0.117996, 0.183914, 0.164871, 0.275421, -0.152252, -0.031311, 0.249146, 0.0435028, -0.159317, -0.121048, -0.0814362, 0.179596, 0.211487, 0.0297394, 0.113495, 0.12529, -0.220642, 0.200974, 0.160324, -0.161163, 0.214783, -0.0753632, 0.0590057, 0.0272827, -0.0989532, 0.00114441, -0.0330658, 0.136047, 0.0407867, 0.107727, -0.0839996, -0.231155, 0.0206146, -0.172821, 0.0697327, 0.216705, -0.00268555, 0.131638, -0.175125, 0.022583, -0.103348, -0.164505, -0.0298309, -0.0268097, 0.0378571, -0.121353, 0.0887909, 0.235168, -0.0450134, 0.0347137, 0.0966797, 0.25737, 0.233383, 0.0948029, -0.169525, 0.12291, 0.064743, -0.107788, 0.084137, -0.20195, 0.134995, 0.0568542, 0.189896, 0.0220337, -0.147003, -0.19371, -0.0623779, -0.0670471, 0.131699, 0.125885, 0.0236053, 0.197144, 0.25351, 0.024231, -0.0440826, -0.163727, 0.184753, -0.00805664, 0.046463, 0.165985, 0.0106049, -0.0105896, -0.180893, 0.166031, 0.134552, -0.1194, 0.146591, -0.131699, 0.105911, 0.0880432, -0.132141, -0.127029, 0.158844, 0.00256348, -0.145554, 0.16095, -0.146164, -0.0558929, -0.044632, 0.169388, -0.217041, -0.0704193, -0.166092, -0.146179, 0.191895, 0.125092, -0.17691, 0.146271, -0.0711823, -0.214386, -0.0508728, -0.0347748, -0.0431824, 0.134628, -0.242889, -0.0505219, 0.0943451, -0.0437775, -0.196472, -0.000305176, 0.135071, 0.0130615, 0.0956116}, {-0.174545, -0.11554, -0.07547, -0.171448, -0.0212097, -0.0606079, 0.167191, 0.0093689, -0.128433, 0.0421906, -0.0939636, -0.179977, 0.0715179, 0.00445557, 0.107895, -0.205444, 0.192535, -0.0971527, -0.0906525, -0.0971527, -0.253265, -0.187592, -0.0290833, -0.0302887, 0.0749969, 0.22438, 0.0849457, -0.11615, 0.241226, -0.205139, -0.230011, 0.117523, -0.203156, 0.110901, 0.0306702, -0.161453, -0.117493, -0.200058, 0.116211, -0.162125, -0.0208435, -0.0617371, 0.0451965, -0.04776, -0.176224, 0.190857, 0.138702, 0.0202484, -0.136856, 0.2164, -0.115524, -0.00619507, 0.00840759, -0.119568, 0.0796509, -0.156586, -0.0464325, -0.15242, 0.0245209, -0.154205, -0.0998077, -0.193207, -0.2229, -0.0819702, 0.126511, 0.0410614, -0.0241852, -0.13382, -0.176071, -0.0214081, -0.123749, -0.0676422, -0.145111, 0.0221405, -0.0494385, 0.0500183, 0.115158, -0.170654, 0.0531464, 0.251221, -0.00050354, -0.0259247, 0.125992, -0.233276, -0.131256, -0.13681, 0.0050354, -0.137161, 0.0270233, -0.0273285, 0.159088, -0.188248, -0.157227, 0.0998383, -0.0177765, 0.192047, 0.000183105, 0.237015, 0.133514, -0.0474091, -0.0101013, 0.0286865, 0.0769958, 0.160812, 0.0283508, 0.127548, 0.100815, -0.0559235, 0.0393066, -0.132278, -0.237411, -0.104279, -0.13739, -0.107605, -0.164047, 0.123611, -0.192749, -0.168747, -0.0925293, 0.0979156, -0.0133362, -0.228134, 0.144211, -0.0391998, 0.106186, -0.0519714, 0.161636, -0.0509338}, {-0.146606, -0.116776, 0.146164, -0.114258, 0.203491, 0.00718689, 0.155502, -0.114258, -0.0563812, 0.0732117, -0.173996, -0.127075, -0.0924683, 0.267319, 0.133514, -0.0370941, -0.103455, 0.0913086, -0.0666962, 0.192841, -0.0258942, 0.0921631, -0.081955, 0.21756, 0.21109, -0.212204, 0.0322113, 0.158752, -0.199402, -0.242569, -0.164215, -0.12767, 0.129852, 0.134125, 0.0840149, 0.205521, -0.15242, 0.215668, -0.0172272, -0.106796, 0.144592, 0.0178833, -0.154907, 0.1035, 0.0646515, -0.0363159, 0.055542, -0.0700684, 0.00831604, -0.238052, 0.0454865, 0.0813904, 0.260696, -0.0813751, -0.0358276, -0.115417, 0.0102539, -0.0870819, 0.00946045, -0.153427, 0.226822, 0.0233917, 0.0462494, -0.13623, -0.228592, -0.0843353, -0.0577393, 0.039856, 0.132187, 0.0578461, 0.0919342, -0.0552673, -0.0492706, 0.100708, 0.00798035, 0.198959, -0.0233002, 0.0569611, 0.175934, -0.0863037, 0.0929718, -0.0195007, 0.0127716, 0.0434265, 0.165085, -0.112305, -0.0230865, 0.109482, 0.125107, -0.0734863, 0.171722, 0.224075, 0.00431824, -0.288086, -0.06073, -0.166336, -0.0775909, 0.0867615, -0.125458, 0.0452271, -0.0829163, -0.175217, 0.0393219, 0.0177612, -0.251038, -0.249496, 0.153198, -0.0236053, 0.0592041, -0.0545502, 0.124283, 0.152878, -0.0654144, -0.113342, 0.0231781, -0.155685, 0.0381775, -0.109482, 0.148163, -0.10199, -0.19841, -0.107193, -0.21553, -0.139511, -0.0261383, 0.141327, -0.120178, 0.0742493}, {-0.04953, 0.102142, -0.173645, 0.191116, 0.195511, -0.199173, 0.196243, -0.071701, -0.122131, 0.109909, 0.137482, 0.14325, 0.12088, 0.180649, -0.126999, -0.224335, 0.202744, 0.0292816, -0.157181, -0.0552063, -0.209305, -0.247421, 0.00602722, 0.0880127, 0.174362, 0.180054, 0.0488586, 0.0701294, -0.138885, 0.063385, 0.0787964, -0.164047, -0.112549, 0.0309906, 0.0792542, -0.171234, 0.0679474, 0.185791, 0.20311, 0.0664062, 0.0243835, 0.1483, 0.115967, 0.212311, 0.0740967, -0.0695801, -0.0956116, -0.225739, -0.0320129, -0.222519, 0.022522, 0.164841, 0.229691, 0.0729828, -0.0378571, 0.0551605, -0.0234222, -0.0605316, 0.0712738, 0.0598145, -0.0358276, 0.0925903, -0.137268, 0.216278, 0.123444, -0.0775604, 0.0343323, 0.082428, -0.0171356, 0.0426788, 0.0319977, 0.137863, -0.0747375, 0.046402, 0.162613, -0.183395, -0.0237122, -0.0945129, -0.183334, 0.137939, 0.15271, -0.045517, -0.0934753, -0.14653, 0.219025, 0.0457916, 0.267792, -0.099762, 0.0982056, 0.172958, -0.0144348, -0.125534, 0.224243, 0.100311, 0.177185, 0.186996, 0.119385, -0.0118103, 0.00637817, 0.0163269, -0.0459595, 0.0591278, 0.075592, 0.112518, 0.0645752, 0.180374, -0.236282, -0.256378, -0.0429688, -0.0833282, 0.0277557, -0.0161743, -0.0480194, 0.171188, -0.111771, 0.163391, 0.0271912, 0.0876312, 0.0891724, -0.00752258, 0.152054, -0.127396, -0.179443, 0.154373, 0.160583, -0.152344, -0.171387, -0.0570068}}, {{-0.0652466, -0.0412903, -0.0595245, 0.19606, -0.217117, 0.167816, -0.0228729, -0.0331726, -0.10733, -0.151505, -0.0893707, -0.177139, 0.0682983, 0.122177, 0.0585022, 0.0859375, -0.157181, -0.0786896, 0.138962, 0.100754, -0.0699158, 0.14801, -0.0584412, 0.116989, 0.219833, -0.149963, 0.0577698, -0.0671539, -0.0441132, -0.0182648, -0.11322, -0.09375, 0.0906372, -0.24588, 0.0143738, -0.0519714, -0.139267, 0.167114, 0.184357, 0.041153, -0.214081, -0.0245972, -0.140015, -0.0766449, -0.0944366, 0.125763, 0.046051, 0.160278, 0.0339355, 0.162079, 0.016571, -0.0850372, -0.103928, 0.163483, -0.111099, -0.216324, -0.187622, 0.0484009, -0.144302, -0.0496826, -0.154419, 0.00563049, -0.0950928, 0.0253448, 0.165695, 0.17305, 0.0397644, -0.102448, -0.0866852, 0.0908508, -0.139221, -0.159897, 0.0428619, -0.0986328, 0.118011, -0.227402, -0.0592041, 0.20105, 0.111069, -0.0884399, 0.193497, -0.108994, 0.0941467, 0.206894, 0.0513611, -0.223434, -0.0575867, 0.0141602, 0.0366821, -0.109344, -0.0861511, 0.00785828, -0.0525665, 0.0911407, 0.081192, 0.195267, -0.146759, 0.184418, 0.147507, -0.0519104, -0.256592, -0.183243, -0.0526886, 0.0287476, 0.171143, 0.193619, 0.13295, -0.0747375, -0.0724487, -0.142288, 0.05159, -0.0398102, 0.0804749, 0.154678, 0.132751, 0.168091, 0.0709686, 0.206543, 0.188202, -0.00511169, -0.126328, -0.0657043, -0.104446, -0.082962, -0.13327, 0.161789, 0.186569, -0.16658}, {-0.0528259, 0.103577, 0.0249481, -0.134125, 0.0342865, -0.159729, 0.0713043, -0.0778656, 0.015976, 0.163406, -0.0779877, -0.0729523, -0.0885162, -0.13356, -0.175385, -0.00500488, -0.15596, -0.220612, -0.0314178, -0.0964813, 0.192978, 0.039917, 0.0654602, 0.218155, -0.158493, 0.109467, -0.157913, 0.136673, -0.18959, -0.140594, 0.126907, -0.141693, -0.119598, -0.226837, -0.189911, 0.184875, 0.0644073, -0.173859, -0.0087738, 0.0699005, -0.129837, 0.0663147, 0.0797272, 0.112152, 0.0642242, -0.191818, 0.0870056, 0.153549, -0.0748596, -0.23056, 0.0743408, -0.136841, 0.0986786, -0.000289917, -0.101105, -0.109116, -0.176804, -0.115814, 0.202301, -0.0578766, 0.106491, 0.0741272, 0.0411377, 0.125702, 0.0471191, 0.209045, 0.188599, 0.0297394, -0.230362, 0.147842, 0.0258636, -0.0583191, 0.0454254, 0.00926208, 0.181351, -0.0337524, -0.0415039, 0.0507812, -0.214142, -0.110382, -0.15123, 0.0252228, -0.0617371, -0.202774, -0.196426, 0.149918, -0.0326538, 0.0700073, 0.0136719, -0.112961, -0.192215, 0.226044, -0.0649567, -0.120438, 0.0526581, 0.148483, 0.17598, -0.00363159, 0.0652161, -0.0367584, -0.0399017, 0.150711, -0.153229, 0.0626678, 0.200531, -0.135132, -0.167892, -0.0149078, 0.179703, 0.140121, -0.0379486, -0.167801, 0.118546, 0.113876, 0.217224, 0.20755, -0.14946, -0.118256, 0.139374, 0.109406, -0.21524, 0.248062, 0.018219, -0.114883, 0.017395, -0.0212708, 0.199554, -0.0595245}, {0.0384827, 0.119141, -0.17662, -0.124481, -0.113052, 0.184814, 0.187668, -0.140976, 0.0749207, 0.150375, 0.147583, -0.151276, 0.083847, -0.0963745, -0.00393677, -0.193085, -0.121017, -0.165848, 0.146255, 0.018631, -0.13855, -0.0621185, -0.181107, -0.0146942, -0.108505, 0.185562, 0.0859222, -0.126572, -0.151581, 0.205383, 0.0311127, 0.0803986, 0.0519714, 0.0394897, 0.200516, 0.0997162, -0.0453949, 0.168045, 0.170624, -0.0960236, -0.0649414, 0.270142, -0.14061, 0.106857, 0.0950317, 0.195724, 0.0855103, -0.121292, 0.194138, 0.205887, -0.122604, -0.0856476, -0.216873, 0.108658, -0.0947876, 0.0297546, 0.0707245, 0.159073, 0.0224152, 0.138748, -0.102936, 0.103912, -0.0530243, 0.0881195, -0.162048, -0.00183105, 0.178848, 0.13472, 0.00592041, 0.138535, 0.272476, -0.210907, 0.196548, 0.134109, 0.162796, -0.0588989, -0.102798, -0.079071, -0.071228, 0.0357819, -0.0065918, 0.0860901, -0.0575714, 0.188721, -0.0194092, 0.243668, 0.13765, 0.0926819, 0.000534058, 0.0699921, 0.0455475, -0.048584, -0.0467529, 0.057663, 0.0293884, 0.186172, 0.0127411, 0.11351, -0.116425, 0.148941, -0.0788116, 0.0684662, -0.0491943, -0.311707, 0.176651, -0.140594, -0.058075, 0.0566559, 0.229446, 0.170105, 0.0155029, -0.0045929, -0.10965, -0.0228577, 0.123169, -0.0654907, -0.219589, -0.0210724, -0.0596313, -0.0932922, 0.0971985, 0.190994, 0.147064, -0.0845795, 0.0343628, -0.139496, -0.115433, -0.0661774}, {0.207901, -0.0446625, -0.0974579, 0.156021, 0.141541, 0.0791168, 0.112564, 0.208252, 0.225571, -0.0397949, -0.136154, -0.117111, -0.0327606, -0.138199, -0.0157166, 0.11467, 0.0648956, 0.189606, -0.0877838, 0.182114, 0.0898743, 0.100616, -0.0585175, -0.150131, -0.128632, -0.131119, -0.178452, 0.162933, 0.206528, 0.052948, 0.0476532, 0.0583801, 0.115433, 0.0651703, -0.149948, 0.228195, 0.228577, -0.21051, -0.198135, 0.226028, -0.100693, -0.123566, -0.0849609, -0.255478, -0.186523, 0.15979, 0.145569, 0.107895, -0.0375671, -0.180832, -0.00906372, -0.00340271, -0.152512, -0.0582581, 0.00270081, 0.195648, 0.0892944, -0.10614, -0.0428467, -0.068161, -0.101166, 0.132462, -0.146393, -0.203094, 0.194656, -0.215347, 0.107498, 0.0594635, -0.175308, -0.027771, 0.0829926, 0.104538, -0.217514, -0.192459, 0.149597, 0.21225, 0.0658112, -0.0030365, -0.211548, -0.0288696, -0.217209, 0.0542603, 0.151581, -0.0867004, -0.130722, 0.0409241, -0.15921, 0.102844, -0.0292206, 0.152908, 0.111008, -0.147095, -0.218933, 0.158707, 0.0792694, -0.00137329, -0.0676575, 0.0953827, -0.0163116, 0.0599823, -0.192429, 0.0916443, 0.106476, 0.136581, 0.193619, -0.008255, 0.163879, 0.0904999, -0.205109, -0.0298157, 0.0310059, -0.00538635, -0.0108337, 0.0853119, 0.0147552, -0.152313, 0.00808716, 0.145294, -0.0442047, -0.0789795, -0.21373, 0.169205, 0.104538, 0.0279083, 0.0471191, -0.0365601, 0.116714, 0.154541}}, {{0.155441, 0.0205841, 0.0637207, 0.115967, -0.1698, 0.247894, 0.00663757, 0.0945587, -0.100357, 0.112076, 0.0856934, 0.0628662, 0.0900116, -0.0181885, -0.140015, -0.0684662, 0.114227, 0.0836945, -0.106461, -0.073822, -0.200485, 0.0693512, -0.172989, -0.227798, -0.0658722, -0.101273, -0.0490723, 0.0583191, -0.144974, 0.0586243, -0.228317, 0.0919952, 0.149475, 0.184555, -0.0287476, 0.0520935, 0.00260925, 0.0679016, -0.0469513, 0.0434723, 0.165237, 0.0830383, -0.0563354, -0.119095, -0.141678, -0.160233, -0.173248, 0.00440979, 0.18042, 0.238861, 0.198135, 0.10054, -0.199219, 0.170975, 0.0124359, 0.0113068, -0.0356903, 0.0257874, 0.0942078, -0.00714111, 0.101547, -0.259903, 0.0161896, 0.00776672, 0.139664, -0.212845, -0.017746, -0.167816, -0.0773621, -0.203629, -0.147415, 0.172287, -0.0593567, 0.0856323, -0.140793, 0.173264, -0.089035, -0.162048, 0.154282, 0.120651, -0.173798, -0.000900269, -0.0999603, -0.143631, 0.0460663, -0.0606079, 0.222092, 0.1577, 0.0361938, -0.0112915, 0.165161, -0.0967255, 0.120132, 0.00567627, -0.176331, 0.109375, 0.124527, 0.0489502, -0.0574188, 0.117508, -0.0530243, -0.0184326, -0.0522003, 0.013092, -0.103897, 0.0997467, 0.145905, 0.0298767, 0.0503998, -0.169632, -0.0518799, 0.218689, -0.124771, 0.110535, 0.104889, 0.0869446, 0.137772, 0.0261383, -0.127319, 0.225388, -0.168442, 0.0779266, -0.130951, -0.0774078, -0.00175476, 0.0315857, 0.222427, -0.0381317}, {-0.167801, 0.114853, 0.105606, 0.0775146, -0.150482, -0.040451, 0.0373993, 0.181046, 0.0987549, 0.00758362, 0.250122, -0.158768, 0.0703888, 0.0975189, 0.103989, 0.194122, 0.125565, 0.207306, 0.0567322, 0.103104, 0.150375, 0.000152588, 0.111252, 0.126984, 0.142227, -0.0662537, 0.0336609, -0.00682068, 0.135925, 0.0979919, 0.238983, 0.115524, 0.0128937, 0.0860138, 0.148148, 0.0501099, -0.0817566, 0.0275879, 0.192657, 0.0678101, -0.00326538, -0.15416, 0.128723, -0.12326, 0.0100403, -0.162872, -0.0281067, -0.137314, -0.209778, -0.0449219, -0.0306244, -0.149506, 0.240067, -0.0355988, -0.12262, -0.0969696, 0.106659, -0.0131836, -0.114258, 0.143707, -0.0200806, 0.0593262, 0.132629, -0.0530396, -0.0289917, -0.130966, -0.211365, 0.148804, 0.141357, -0.0914459, -0.205505, -0.0382996, -0.0685272, 0.0900269, 0.144577, 0.0238647, 0.114029, -0.201859, 0.068924, -0.132416, 0.205261, 0.00352478, -0.121628, 0.138016, 0.121887, 0.189804, 0.148697, 0.064209, 0.0549316, 0.189316, 0.143829, 0.00158691, 0.0324707, -0.0106201, 0.0254364, -0.0605774, 0.148041, -0.121689, -0.197205, 0.136551, 0.177292, 0.0587158, 0.116058, 0.0606995, -0.187454, 0.0114136, -0.135483, -0.050766, -0.118256, -0.00523376, 0.0908051, 0.197296, -0.0719299, -0.0944061, -0.199799, 0.0684204, 0.0915985, 0.0991058, 0.0516052, -0.125244, -0.0533905, -0.213181, -0.0560303, 0.0121307, 0.192932, -0.17305, 0.213928, 0.00978088}, {-0.0596161, -0.182114, 0.0344391, -0.0904083, 0.0498657, -0.0666656, 0.162643, -0.0196991, -0.0530548, -0.076828, 0.0305328, -0.221283, 0.0831299, -0.0411682, -0.0627594, -0.0488434, -0.0403748, -0.061615, 0.177917, 0.00328064, 0.104355, 0.144653, 0.219269, -0.0175323, 0.00123596, -0.0248566, 0.0624237, 0.0308838, 0.0202789, 0.179337, -0.0672302, -0.0879974, -0.138275, 0.105453, 0.00871277, 0.0924835, -0.0755157, -0.0769348, 0.0517273, -0.153336, 0.111893, -0.102859, 0.044754, -0.0190735, 0.0433197, -0.0701141, 0.0496063, 0.0518951, 0.102814, 0.0520325, 0.190018, 0.218369, -0.138992, -0.220612, 0.124146, 0.193375, 0.168396, 0.0159302, -0.138947, -0.136581, 0.0619049, -0.195023, 0.15387, 0.0211334, -0.0910034, 0.0710297, -0.0230255, -0.178497, 0.215805, -0.0448303, 0.182053, -0.0312653, 0.0523529, -0.263138, -0.0963745, -0.0161438, -0.0338135, 0.0747528, 0.00344849, 0.101547, 0.0597382, 0.0548248, 0.122879, 0.130493, -0.112045, -0.141464, -0.176727, 0.0401459, -0.103546, -0.175369, -0.196625, -0.151993, -0.123138, -0.0244904, -0.123322, 0.0355072, -0.0808105, 0.114624, -0.0545502, -0.0525818, -0.208176, -0.0263977, -0.187012, -0.0231781, 0.19191, 0.158722, -0.186172, -0.212112, 0.0889282, -0.0376892, -0.0563507, 0.133957, -0.0454407, -0.126083, -0.187347, -0.108765, 0.0921936, 0.0778809, -0.181137, -0.00675964, 0.116928, 0.0972748, 0.169128, -0.120407, -0.192978, 0.146164, -0.154709, 0.141541}, {-0.128357, 0.0500336, 0.125549, 0.0448761, 0.111496, 0.15094, -0.055191, -0.198563, -0.151688, -0.115402, -0.00767517, 0.137268, 0.0907135, -0.173569, 0.14682, 0.208481, 0.0394287, -0.13031, -0.0696716, -0.230682, 0.161316, 0.167435, 0.00354004, -0.169022, -0.0257416, -0.0331421, 0.0977783, -0.161758, -0.0389404, -0.215973, 0.0113831, 0.0162354, -0.0893555, -0.102646, -0.131012, 0.0484314, -0.00961304, -0.139206, -0.225784, -0.0714264, -0.0230408, -0.128922, 0.0463715, 0.184097, 0.0818481, 0.0926514, -0.156311, -0.175247, 0.0334015, 0.236328, -0.137283, -0.110443, -0.162735, 0.0905914, 0.142044, -0.0708771, -0.201721, 0.0937653, -0.142242, -0.112488, 0.0113678, 0.0936737, -0.0831146, 0.122864, -0.00553894, 0.225082, -0.0371552, 0.119431, -0.0314178, -0.0425873, 0.185471, 0.158127, 0.111099, 0.220718, -0.0133514, -0.0468597, 0.0203247, 0.0121307, -0.0831299, 0.0124512, -0.052002, -0.0501709, 0.0338287, -0.0695648, 0.0223236, -0.162643, -0.125641, -0.0739594, 0.0605621, -0.0869141, -0.0177917, -0.0620728, 0.195694, -0.116196, -0.0836792, 0.162079, -0.0437775, 0.0467072, -0.111633, 0.0913239, -0.037674, -0.030426, -0.0707855, 0.0326843, -0.0883179, -0.187256, 0.220856, 0.166214, -0.163574, -0.061676, 0.00164795, -0.080658, 0.123795, 0.00282288, -0.180969, -0.097641, 0.128006, -0.172913, 0.14856, 0.106522, 0.0154572, -0.119629, -0.151917, 0.138657, -0.00657654, 0.0225067, 0.0696869, -0.253403}}}}

#define BIAS_PATCH   {-0.117996, 0.118271, -0.184692, -0.0614014, -0.0689392, -0.0223389, -0.0334625, -0.203522, 0.0805511, 0.0296478, 0.105576, 0.019928, 0.162674, 0.0634766, -0.0384064, 0.136795, 0.185379, 0.191467, 0.124146, 0.116562, -0.1418, 0.0432129, 0.0783081, 0.118469, -0.14122, 0.110138, 0.0428772, -0.0287933, -0.13858, 0.0233917, -0.00767517, -0.0844574, -0.181244, -0.108215, 0.136505, 0.0210876, 0.0674133, 0.0784302, -0.166229, 0.122391, -0.208206, -0.0700226, -0.1642, 0.0383453, -0.217316, 0.140198, -0.0306549, -0.242477, -0.0774384, -0.0618134, -0.11174, 0.153091, -0.198257, 0.0942383, -0.094986, -0.0978241, -0.133057, 0.00637817, 0.0422974, 0.0120087, -0.0580139, -0.176086, -0.173065, -0.086731, -0.0658722, 0.0802155, -0.161682, -0.199768, -0.243484, -0.208298, 0.0154572, 0.0558472, -0.101151, -0.0938263, 0.0886078, 0.123047, 0.055603, 0.132675, -0.00387573, -0.0350342, -0.106277, -0.127029, -0.138031, 0.211151, -0.00366211, 0.0511627, 0.1689, -0.117661, 0.0669556, -0.0708923, 0.0774078, 0.165024, -0.0988159, 0.0986023, 0.214355, -0.0606995, 0.0726318, 0.0933533, -0.162781, 0.152969, -0.212723, -0.00367737, -0.139084, -0.120941, -0.106506, 0.0773773, -0.0461578, -0.193085, -0.130234, -0.171051, 0.0217743, -0.2453, 0.0185699, 0.00532532, -0.0911102, 0.0969543, -0.0920563, -0.0805817, 0.220444, 0.154968, 0.114243, 0.114624, -0.0935211, -0.245316, -0.0322418, 0.171814, 0.20874, -0.172455}
